#ifndef SENTIMENT_MODEL_H
#define SENTIMENT_MODEL_H

// Quantized Logistic Regression (TOP_K features)
// Q format: Q8 (scale=256)

#define TOP_K 2000
#define Q_FORMAT 8
#define SCALE 256

static const int32_t BIAS_Q = -62;

static const int32_t FEAT_IDX[TOP_K] = {
  48710, 2714, 14080, 47668, 5058, 33559, 17827, 11482, 33556, 48703, 32533, 14673, 14382, 2920, 45805, 12520,
  20101, 13492, 37741, 27706, 19574, 42209, 35658, 2944, 5509, 4029, 1585, 24064, 43381, 30430, 32536, 42309,
  25605, 21426, 10638, 45958, 14510, 36334, 13274, 45821, 42360, 30872, 16241, 1197, 24429, 15684, 47891, 16212,
  25594, 33407, 10733, 2703, 44086, 24186, 1100, 27381, 3051, 15315, 47767, 45921, 21403, 29019, 19600, 3594,
  41873, 46306, 41986, 45912, 20541, 45631, 27981, 35869, 41488, 1874, 12279, 38194, 28208, 16758, 13554, 26801,
  48587, 28157, 18947, 38517, 6680, 30699, 35202, 21327, 5550, 5125, 12359, 42214, 43802, 15097, 45750, 43287,
  1815, 35413, 23966, 44663, 40414, 14603, 23496, 26886, 48173, 39563, 35564, 47744, 44350, 42359, 25470, 44984,
  22379, 42023, 17693, 28369, 33854, 25721, 34202, 46103, 5329, 49039, 44608, 11536, 39919, 21744, 37691, 10424,
  4358, 44129, 16796, 45539, 48720, 29788, 45911, 41424, 37843, 7711, 22457, 5060, 45435, 2354, 48682, 9505,
  14678, 5255, 26660, 43880, 30297, 37278, 13736, 9020, 31736, 41509, 7358, 4455, 46824, 1104, 43158, 30258,
  40534, 34226, 19984, 7344, 46073, 49159, 45021, 3720, 29943, 41069, 40589, 31938, 33258, 12894, 40360, 18148,
  46960, 3380, 32176, 9440, 45423, 6557, 29711, 13806, 11138, 38172, 20753, 42311, 12178, 39985, 44753, 33988,
  15957, 36325, 41494, 12947, 9448, 2729, 37986, 515, 38367, 29682, 37737, 15285, 38868, 7069, 34814, 2466,
  11452, 7996, 30835, 33275, 46665, 12203, 17506, 41165, 4476, 44570, 45902, 47614, 3785, 13565, 41787, 2538,
  38530, 32130, 42517, 10731, 44087, 2489, 41985, 15368, 38342, 41365, 31436, 34111, 26878, 17189, 9254, 16542,
  43124, 31536, 31916, 33908, 30931, 20653, 40989, 26848, 43383, 13965, 31273, 30008, 1831, 47007, 39510, 24574,
  48712, 40370, 45264, 27982, 10741, 19090, 28561, 11567, 38822, 2040, 39779, 21439, 34053, 18358, 42663, 30914,
  12787, 39799, 30733, 24983, 38571, 5895, 42246, 5153, 13430, 14149, 30319, 42543, 7383, 40833, 42280, 36997,
  46643, 18826, 9114, 17724, 6595, 26975, 13510, 40742, 40583, 13459, 44458, 15314, 2654, 44839, 6369, 31613,
  6519, 16054, 8519, 27928, 30347, 18855, 1730, 14928, 40194, 17697, 14279, 1187, 37266, 1435, 1475, 31558,
  46015, 8086, 43925, 18559, 20371, 29481, 27043, 48164, 25547, 38443, 35796, 21060, 30909, 29753, 14114, 10436,
  28034, 12972, 43716, 14001, 6901, 24976, 11610, 11476, 198, 14890, 29571, 26777, 41427, 21150, 11446, 41506,
  5647, 7656, 11595, 33710, 31381, 17606, 38358, 17863, 19988, 9317, 12171, 7394, 21921, 7041, 41302, 30858,
  32273, 8466, 14197, 22651, 7098, 14202, 21898, 10584, 35122, 34152, 12537, 11374, 6794, 18244, 17843, 33427,
  7400, 10434, 10183, 40411, 47564, 35104, 40429, 18539, 26396, 24069, 30116, 14523, 24636, 38430, 16007, 18524,
  28609, 28292, 21588, 17132, 48785, 35551, 12803, 13527, 5002, 9046, 13727, 8498, 17647, 32260, 28151, 21021,
  38381, 25528, 6077, 29214, 12886, 15399, 36372, 11467, 12533, 26153, 24454, 40962, 48563, 27297, 34219, 11948,
  14384, 38607, 20725, 12488, 48690, 45796, 230, 6496, 25395, 24744, 35271, 25424, 30436, 24387, 16274, 14267,
  23487, 7563, 17978, 43491, 20893, 17713, 12718, 27156, 42004, 27308, 9844, 43638, 11084, 827, 36214, 27891,
  2635, 29335, 40409, 19706, 13251, 10668, 25659, 27497, 22529, 15139, 23183, 46671, 19035, 40132, 4382, 4873,
  36889, 5511, 41722, 31537, 23622, 43480, 6775, 40476, 39286, 46461, 44196, 2192, 12790, 41458, 13177, 5492,
  3618, 21509, 4588, 7169, 17454, 38373, 36650, 7192, 17824, 41109, 4195, 45718, 8434, 10613, 22507, 48483,
  33297, 37457, 34457, 6525, 34209, 8598, 33655, 21027, 20403, 4552, 13569, 25026, 7530, 29839, 42667, 16331,
  435, 478, 27131, 29280, 141, 41479, 32883, 37276, 38156, 36437, 48761, 16138, 32997, 20515, 41838, 26888,
  25383, 14410, 47248, 21102, 24686, 6571, 20168, 44006, 21241, 33660, 41258, 23307, 19854, 20863, 39267, 42248,
  242, 35384, 2297, 26925, 40425, 2734, 34845, 17297, 36194, 21378, 34915, 41322, 45394, 40103, 20827, 26345,
  28760, 38260, 14084, 47292, 26942, 41874, 36265, 8457, 4091, 20497, 7719, 4504, 4642, 37050, 24617, 4614,
  26987, 4057, 17105, 4228, 35509, 39470, 25903, 19099, 13884, 41957, 12335, 46124, 3675, 8154, 38356, 23271,
  25396, 33323, 20890, 12284, 25544, 19875, 10581, 6761, 11004, 5731, 9612, 15306, 43182, 7467, 40071, 15262,
  47122, 26367, 27800, 16743, 24820, 22282, 48756, 13606, 8968, 2362, 48225, 2608, 38556, 44326, 10069, 39972,
  5165, 21807, 35953, 43919, 14360, 12304, 21914, 7576, 36162, 31739, 4224, 18585, 15319, 39400, 25449, 3257,
  26461, 1968, 9524, 37493, 36751, 21235, 21748, 9408, 21605, 47173, 8520, 29612, 28746, 48539, 20021, 28317,
  40272, 29692, 21189, 16487, 15362, 24504, 32543, 14964, 19591, 47682, 29160, 47510, 5069, 18409, 15071, 33815,
  46701, 36422, 8668, 16290, 10364, 42119, 23968, 36726, 38731, 27032, 41329, 8011, 27231, 13367, 30698, 14672,
  5795, 12358, 45033, 721, 8569, 29033, 13150, 15747, 25684, 39887, 19279, 24829, 30396, 47333, 18574, 32736,
  16126, 10459, 23739, 31177, 39997, 15777, 6024, 5585, 16822, 10796, 25101, 30526, 12670, 38055, 3468, 21612,
  17986, 12759, 3043, 38621, 7024, 29047, 5381, 19119, 44449, 6189, 10567, 31147, 48014, 41853, 19982, 34119,
  169, 35028, 9472, 42000, 34038, 33929, 12903, 26300, 40939, 23871, 19194, 25106, 12325, 26264, 12306, 33301,
  15496, 9889, 47339, 8740, 30464, 2865, 1704, 11047, 41423, 39656, 39090, 36107, 10260, 11709, 40037, 38746,
  20348, 17829, 43878, 22896, 42631, 38567, 16333, 37451, 1254, 40855, 3035, 16771, 6614, 4201, 30484, 30401,
  45357, 36104, 7672, 33891, 43767, 27037, 29723, 34325, 447, 22585, 38987, 46495, 49338, 9484, 41177, 11358,
  43159, 2067, 17592, 14801, 24191, 19566, 11570, 19882, 33183, 13233, 31463, 35074, 4881, 18006, 30382, 34236,
  15655, 7521, 9550, 9129, 41034, 8601, 41729, 27019, 40709, 39000, 1072, 42506, 39336, 27282, 6832, 8010,
  7718, 9668, 14068, 20013, 42716, 17530, 18798, 15539, 6401, 47002, 26249, 37005, 37038, 40782, 40893, 1833,
  37331, 20102, 9823, 28676, 36784, 928, 13178, 24383, 33950, 26531, 49054, 23438, 18812, 28406, 29209, 18364,
  3855, 21568, 44111, 23616, 22604, 8174, 46477, 30473, 41937, 13198, 1701, 36310, 47428, 8433, 28255, 28947,
  8206, 22250, 7070, 26935, 45697, 4404, 17387, 22579, 46955, 30705, 26229, 31625, 13799, 24774, 28585, 13999,
  6118, 35676, 40537, 40388, 40866, 47549, 34324, 43534, 27802, 37059, 16344, 41227, 27184, 38296, 9394, 19243,
  32513, 25398, 33545, 35833, 17903, 18893, 36284, 8145, 33281, 5801, 948, 583, 37229, 23644, 8608, 28067,
  48771, 32439, 47700, 27597, 29562, 31550, 21051, 8939, 42026, 28230, 2691, 22982, 27698, 41940, 18040, 12228,
  36569, 33046, 34364, 29465, 7038, 24143, 24936, 10666, 31460, 16038, 36028, 10140, 27187, 13882, 17573, 4054,
  31224, 43108, 96, 46009, 8876, 11255, 1186, 21259, 35088, 26472, 20079, 48707, 294, 39555, 3902, 933,
  31818, 49553, 21257, 23379, 36602, 8189, 18414, 48157, 32432, 16864, 3440, 2253, 1071, 43706, 34233, 30831,
  2491, 49563, 13380, 11302, 4254, 27713, 33638, 17873, 48560, 29545, 21111, 47882, 45680, 3513, 21555, 19609,
  25036, 48714, 9689, 31596, 31921, 32614, 4813, 27628, 6448, 45415, 20334, 22287, 21752, 40182, 41809, 26748,
  284, 41463, 24964, 32226, 15289, 20654, 48170, 49014, 7652, 23955, 2480, 48324, 1214, 37667, 15053, 24923,
  8208, 41767, 44445, 29478, 46516, 24252, 3907, 5031, 34196, 21587, 791, 30481, 48065, 26187, 34729, 20042,
  31975, 38892, 41472, 39753, 2377, 21423, 29773, 32683, 29165, 22545, 31331, 2727, 36562, 36475, 5325, 13342,
  29874, 48079, 48799, 7959, 46921, 3822, 43415, 17274, 27736, 37769, 40695, 13420, 24562, 9988, 5597, 16810,
  41387, 33108, 47492, 43955, 39025, 32905, 14806, 15178, 31721, 24154, 4988, 2593, 34240, 10526, 1893, 5953,
  10844, 43020, 18997, 35626, 46609, 43718, 38849, 46630, 14791, 33889, 10842, 46943, 37325, 23190, 21530, 14009,
  12052, 9628, 32855, 48435, 35817, 31902, 20952, 31868, 3374, 1883, 3956, 861, 9955, 2178, 7633, 31864,
  36098, 18917, 16117, 48788, 20359, 25634, 45353, 48846, 13648, 38233, 7214, 10030, 13644, 11651, 23946, 46833,
  8812, 36433, 43117, 30417, 19900, 33331, 30992, 41203, 1794, 42379, 11445, 41198, 48403, 17082, 18990, 12649,
  46334, 24852, 40965, 25044, 10513, 20750, 1645, 48084, 42039, 7074, 31141, 40026, 16998, 24428, 23829, 10919,
  36095, 11745, 40836, 30841, 39276, 21539, 23313, 49102, 36480, 25794, 17065, 44440, 26057, 19685, 37671, 7055,
  49380, 24867, 20903, 47914, 2798, 9402, 31240, 9296, 6682, 42239, 30196, 13859, 39884, 4463, 46875, 5358,
  8265, 27508, 28894, 4555, 35245, 11185, 24512, 6469, 7277, 1133, 14056, 16463, 28952, 16214, 49222, 45889,
  48051, 35158, 46854, 49249, 42837, 43701, 40378, 36810, 4896, 39271, 15626, 1155, 4342, 36458, 47922, 13900,
  33531, 47696, 41990, 39413, 35793, 23080, 21274, 25864, 46642, 49268, 45754, 42600, 37057, 31328, 38135, 17294,
  32983, 21621, 18405, 84, 20074, 9071, 31152, 13217, 27527, 43384, 20964, 21031, 168, 32556, 20797, 33401,
  18189, 29104, 27475, 485, 17032, 31509, 10429, 17811, 19479, 25344, 28783, 13314, 25076, 27063, 29911, 2644,
  2559, 44732, 30439, 39605, 27492, 24883, 35234, 23429, 18399, 12206, 2393, 34054, 8224, 40726, 47470, 36079,
  30423, 8988, 43737, 26530, 41969, 30691, 19705, 1787, 13468, 45568, 4200, 18862, 20400, 26355, 9310, 30595,
  36626, 9649, 36502, 40114, 34459, 16192, 15090, 39762, 37007, 17696, 20052, 24950, 47915, 5531, 15518, 7062,
  32385, 12410, 43434, 13071, 39804, 2345, 33755, 44599, 6606, 35787, 2283, 46011, 16195, 1890, 20765, 103,
  18907, 42826, 46034, 34852, 12226, 32265, 40543, 8485, 3280, 38459, 1153, 20855, 28332, 13364, 12760, 10629,
  34002, 44175, 965, 36829, 25088, 21353, 33066, 8431, 33973, 13373, 22275, 38957, 44894, 19074, 4257, 13360,
  39553, 2031, 35347, 27878, 9924, 30366, 216, 39023, 41943, 1929, 235, 1469, 13228, 29696, 11543, 5208,
  25542, 10440, 35284, 313, 24567, 46693, 33171, 962, 14975, 18216, 219, 8998, 42243, 2587, 40807, 40057,
  34552, 4359, 13093, 47780, 12187, 42167, 36011, 17305, 472, 36724, 24266, 28485, 19073, 20487, 8597, 15886,
  17729, 27750, 33826, 47819, 15022, 49593, 11203, 46056, 18541, 15273, 3975, 29600, 8632, 21337, 38983, 13487,
  3353, 40690, 11935, 8496, 35357, 23138, 47673, 22322, 36291, 22336, 47606, 24316, 38633, 39412, 41178, 22169,
  35604, 34221, 22888, 21294, 25243, 46343, 37164, 10835, 30159, 10501, 27322, 35675, 28136, 34296, 32148, 13557,
  44075, 15523, 40991, 36234, 44662, 38825, 30619, 866, 22391, 32774, 37372, 34637, 22500, 22338, 13596, 23284,
  5342, 44597, 303, 43321, 12788, 2095, 19221, 33355, 27305, 10050, 5641, 1530, 35146, 8662, 34201, 14984,
  40684, 16048, 13446, 29157, 705, 35964, 33005, 19789, 48525, 14658, 13108, 38767, 15051, 26836, 19347, 26266,
  2027, 21452, 26693, 1018, 28542, 8978, 48489, 45589, 44853, 14744, 42484, 42402, 20227, 24021, 6439, 29105,
  16084, 21670, 14458, 33413, 10004, 13189, 2571, 40208, 29054, 45752, 21478, 5698, 23456, 47546, 19128, 11711,
  37444, 4246, 1003, 17842, 10073, 24968, 1550, 40485, 25918, 13259, 29246, 7577, 41390, 38149, 7682, 31371,
  10793, 287, 25604, 39973, 24993, 17961, 37002, 39457, 4521, 42473, 36673, 17962, 9006, 7482, 23113, 15733,
  14206, 15309, 25193, 934, 42699, 11510, 14286, 46174, 35700, 31482, 3231, 8763, 43506, 18239, 1015, 40625,
  22802, 10223, 3642, 24320, 12175, 15084, 12889, 41151, 25991, 251, 33698, 30715, 22407, 37429, 32123, 40711,
  9734, 24296, 19943, 39437, 34864, 23611, 48534, 37652, 24928, 40773, 8832, 47738, 47369, 39569, 22892, 45138,
  5324, 142, 2134, 17293, 21293, 43650, 182, 29272, 32427, 25561, 11141, 23484, 28848, 35153, 468, 48834,
  39901, 30659, 27467, 3699, 48519, 36154, 44245, 22777, 8655, 43663, 40685, 49437, 17231, 30676, 38735, 31252,
  34010, 19288, 27859, 5627, 2574, 35623, 32126, 44356, 22528, 47931, 32770, 34799, 33490, 10926, 11052, 31799,
  5640, 46900, 10181, 5615, 48159, 30758, 46067, 30216, 39479, 11673, 9043, 116, 756, 9233, 38264, 40809,
  27954, 10148, 34943, 373, 9001, 7750, 42733, 6480, 38098, 14565, 10836, 38819, 36708, 21712, 17134, 3979,
  17391, 30583, 18690, 32184, 21873, 39302, 23751, 26636, 34805, 39745, 3416, 30943, 8414, 40680, 19125, 32957,
  7230, 13467, 49589, 6724, 33417, 38188, 33644, 32097, 36605, 35169, 36300, 12661, 36021, 44923, 34838, 22191,
  8586, 25421, 35077, 11544, 28795, 42878, 4619, 27087, 9531, 43797, 15998, 47133, 6071, 48810, 13216, 28725,
  25296, 12462, 34978, 30697, 30794, 17217, 35383, 37530, 5880, 40950, 12707, 30817, 33410, 24138, 36716, 7770,
  41385, 39899, 582, 23918, 28691, 6814, 10939, 30428, 3536, 2507, 25806, 18187, 31840, 31121, 49153, 4911,
  38385, 15242, 7635, 19364, 38005, 30145, 15930, 1384, 33795, 47601, 9494, 34318, 44000, 12969, 43156, 11127,
  8325, 39640, 9022, 13568, 8755, 20422, 25709, 19960, 48743, 23607, 38468, 25769, 32229, 16780, 25163, 28903,
  40659, 27885, 3952, 31608, 37193, 7061, 10039, 17711, 3883, 11463, 37129, 22048, 24831, 23309, 42363, 10499,
  32067, 38310, 21796, 33010, 36290, 19377, 37689, 8960, 21208, 8807, 10740, 14375, 6009, 330, 4207, 8166,
  21961, 11766, 14869, 34389, 14236, 35499, 38398, 33110, 250, 32383, 32831, 12063, 35946, 1258, 41116, 9419,
  44763, 48994, 8418, 34512, 26035, 18784, 1316, 41397, 46079, 23144, 4921, 5661, 37275, 9482, 21040, 1338,
  40770, 21009, 36835, 25614, 12023, 16578, 33432, 38067, 10738, 29243, 8377, 460, 5025, 33423, 14426, 21460,
  47249, 6214, 45050, 15648, 39689, 16363, 47774, 167, 12302, 13275, 4605, 26847, 43749, 28353, 11029, 32417,
  16305, 21681, 47547, 8552, 19280, 18654, 30076, 22572, 33136, 42724, 46684, 45048, 43577, 18245, 28338, 32031,
  6000, 38294, 30358, 2955, 33817, 36766, 532, 4158, 36772, 39886, 5303, 9316, 28655, 37705, 2502, 91,
  2844, 25033, 20774, 46373, 25815, 19103, 1318, 29833, 10575, 26870, 11192, 2212, 42947, 23679, 5396, 5603
};

static const int16_t WEIGHTS_Q[TOP_K] = {
  -4114, -3317, 2860, -2831, -2757, -2624, 2523, -2419, -2346, -2305, 2295, 2164, -2137, -2111, -2089, -2040,
  -2014, 1996, -1969, -1956, 1955, 1922, 1890, -1882, 1833, 1811, -1794, -1773, -1768, -1765, 1762, -1754,
  1740, -1734, 1713, -1688, 1666, -1656, -1653, -1644, 1611, -1611, 1583, 1583, -1582, -1580, 1566, 1557,
  -1550, -1538, 1531, -1529, 1527, -1519, -1469, -1466, -1460, 1453, -1440, 1438, -1437, -1432, 1424, 1418,
  -1408, -1390, 1372, -1368, -1354, 1354, -1340, -1333, 1317, 1307, -1294, -1292, -1279, 1279, 1260, 1258,
  -1246, -1245, 1235, 1230, 1229, -1219, 1216, 1213, -1201, -1200, 1191, 1187, -1180, 1179, 1178, 1174,
  -1172, -1170, 1170, -1168, -1168, 1166, 1159, 1156, 1155, 1153, -1147, -1143, 1142, 1141, -1133, -1122,
  1120, -1118, -1117, 1115, -1112, -1106, -1103, -1102, 1101, -1100, -1096, 1096, -1094, -1091, 1088, 1088,
  1087, -1081, 1080, -1079, -1079, -1075, -1074, -1073, 1071, -1069, 1069, -1068, -1067, -1065, 1064, -1062,
  1062, -1057, 1056, 1053, -1051, -1047, 1046, 1042, -1042, -1041, -1041, -1038, 1037, 1037, -1037, 1034,
  -1033, -1031, -1031, 1030, 1029, 1028, -1027, -1026, -1021, 1021, -1021, -1020, 1020, 1019, -1018, -1016,
  1015, -1013, -1011, -1008, -1008, -1007, 1004, 1003, -1003, -1002, -1002, -1000, -998, -998, -996, -993,
  992, 990, -990, 989, -983, 983, -980, 980, -979, -978, -977, -975, 973, 967, 967, 966,
  -966, 965, -965, 963, -963, -962, 958, 957, -956, 956, -954, 954, -954, -953, 951, -950,
  949, -948, 947, 946, 946, -944, 944, -944, -942, -942, 940, -940, 939, 939, -939, -938,
  936, -935, -934, -933, 932, -931, 931, -930, 929, -929, -929, 928, -927, 924, -922, -922,
  921, 920, -915, 914, 911, 911, -911, -910, -908, -903, -899, 898, 897, -897, -896, -896,
  895, -895, -893, -892, 891, -890, 888, 888, -888, -887, -884, 884, 882, 880, -879, -879,
  878, -877, -875, 874, -873, 873, -872, 872, 872, -872, -870, 870, 869, 869, 868, 868,
  -868, 866, 866, -865, -865, 864, -863, 863, -862, 862, -862, -861, -860, 859, 858, -858,
  -857, -856, 856, -855, 853, 851, -851, 849, 848, -848, 847, 847, -847, 847, -847, -846,
  846, -846, 845, 845, 845, 845, 844, 844, -844, -843, 843, 842, 840, -840, -840, -839,
  839, -839, -837, -837, -836, -834, -834, -833, 833, 833, 833, 832, 832, -831, -830, 829,
  -829, 829, -828, -828, -827, 827, 826, 823, 823, -822, -822, -821, 821, 820, -820, 820,
  -818, 818, -818, -817, -817, 816, 816, 812, 811, -810, -809, -808, -808, -807, 807, -805,
  -805, -804, -804, 804, -803, -803, 803, 803, -802, 802, 802, 801, 801, 801, 801, -800,
  -800, -800, 799, -799, 796, 796, 795, 795, -794, 794, -793, 792, 791, 791, -790, 790,
  -790, 789, -788, 788, 787, 787, 787, 787, 785, 784, 783, 783, 783, 783, -782, 779,
  -778, 778, 776, -775, -775, -775, -775, -775, 775, -775, 775, -775, 774, -773, -773, -773,
  -773, 773, 770, 770, 769, 769, 768, 768, 767, 767, 767, 767, -767, -766, -765, -765,
  -764, 764, 764, 763, -762, 762, -761, 761, -761, -761, 760, -759, 758, 758, -757, -757,
  757, -757, 756, 755, 754, 754, 754, -753, -751, 751, -750, -750, 748, -748, -748, 748,
  -746, 746, -746, 746, -745, 745, 745, -744, 744, 744, -744, 744, 743, -742, -742, 741,
  741, -740, 740, -740, 739, 739, -739, -738, -738, -737, 737, -736, -736, 736, 736, 736,
  -735, -735, 735, 734, -734, -733, 733, -733, 733, -732, -732, 731, -731, 731, 729, 729,
  729, 729, -728, -727, 727, -726, 726, 726, -725, -725, -725, 724, -724, 723, 723, -723,
  -723, -723, -722, 722, 721, -720, 720, 719, -719, -718, -718, -717, 716, -716, -716, 716,
  715, -715, 714, -714, 714, -713, 713, 712, -712, 712, -712, -712, 712, -711, 711, 711,
  710, -709, 708, 708, -707, 707, 706, 705, -705, 705, 704, 704, -704, 704, -703, -703,
  703, 703, 703, -702, -702, -702, -702, -702, 702, 701, 700, 700, 700, -699, -699, 699,
  699, -697, -697, 697, 696, -696, 695, -695, 695, -694, 694, -694, 694, -693, 693, -693,
  -692, -691, -690, -690, -690, 690, -689, 689, 689, -689, 688, -688, 688, 688, 688, -687,
  687, 687, -687, 687, 686, 686, 685, 685, -685, -685, -685, -685, 684, -684, -684, 684,
  682, 682, -681, 681, 681, -681, 680, 680, 680, 680, -679, -679, 679, -679, 679, -679,
  678, -678, 678, -678, -677, -677, 677, -677, 677, 676, -676, -676, -676, -676, -675, -675,
  675, 675, -674, -673, -673, -673, 672, -672, 672, 671, 671, -671, 670, -670, 670, 670,
  -670, 670, -670, 668, -668, -668, 667, -667, 667, 666, 666, -666, -665, 665, 665, -664,
  664, -663, 663, 663, 663, -660, 660, -659, 659, -659, 658, -658, -658, -657, -657, -657,
  657, -657, 656, -656, 656, -656, 656, 656, 655, 655, 655, -655, -655, -655, -654, -654,
  -654, 653, 653, -653, 652, 652, 652, 652, -652, 651, 651, -650, -650, -650, -650, -650,
  -649, -649, 649, 649, -649, -649, -649, 648, -647, 647, -647, -647, 646, 646, 646, -646,
  -646, 646, 645, 645, -645, 645, -644, -644, -643, -643, 643, 643, -643, 643, 643, -643,
  643, -642, 642, 642, -642, 642, -641, 641, 641, 641, -640, 640, -640, -639, 639, -639,
  638, -638, -638, 638, -637, 637, 637, 637, -635, -634, -634, 634, -634, -634, -634, -634,
  633, -633, -633, 633, -632, -632, 632, 632, 631, -631, -631, 630, -630, -630, -630, 630,
  630, 629, -629, 629, -629, -629, 629, -629, 629, 629, 629, 629, -628, 628, -627, -627,
  627, 626, -626, -626, 625, 625, -625, -625, -625, -624, 623, -623, 623, -623, -623, 623,
  -623, -622, 622, 622, -622, 622, 622, 622, 622, 621, -621, -621, -621, 621, -620, -620,
  620, -620, -619, -619, -619, -619, -619, -619, -619, 619, -618, 618, 618, -618, -617, -617,
  617, -616, 616, -616, -615, 615, -615, -614, -614, -614, -613, -613, 613, -613, -613, -612,
  -612, 612, -612, -612, 612, 612, 612, -611, -611, 611, 611, -611, -610, -610, 610, -610,
  -609, -609, -609, 609, -608, 608, -608, -608, -608, 607, -607, -607, -607, 607, -606, 606,
  606, -606, 605, -605, -605, -605, -605, 605, -604, 604, 604, -604, 604, 604, -603, 602,
  602, 602, 602, 602, -601, -601, 601, 601, -600, -600, -600, -600, 600, -600, -600, -600,
  599, -599, 599, 599, 598, 597, -597, -597, -597, 597, -597, -597, -597, -597, -597, 597,
  -597, -596, -596, 596, -596, 595, 595, 595, 595, 595, -595, -594, -594, -594, -594, -594,
  -594, -594, 593, 593, -592, -592, -591, 591, -591, 591, -591, 591, -591, 590, -590, 590,
  590, -590, -590, -590, 589, -589, 589, -589, -589, 589, -588, 588, -588, 588, 588, 588,
  587, 587, -587, 587, -587, 587, 586, -586, 586, -586, -586, 585, -585, 585, -584, 584,
  584, -584, 584, 583, 582, -582, -582, 581, 581, 581, -581, 581, 581, 581, 581, -581,
  581, -581, -581, -581, -580, 580, 580, -579, 579, 579, 579, 579, -579, -579, 578, 578,
  -578, -578, -578, 578, -577, -577, -577, 576, -576, 576, -576, 576, 576, -576, 575, 575,
  575, -575, 575, -574, 574, -574, -574, -574, 573, 573, -573, -573, 573, -573, 573, 573,
  573, 572, 572, 571, 571, -571, -570, 570, -570, 570, -570, 570, -570, -570, 569, -569,
  -568, 568, 567, 567, -567, -567, -566, -566, -566, 566, 566, 566, -565, 565, 565, -565,
  564, 564, 564, 563, 563, 563, 563, -562, 562, -562, 562, 562, -561, -561, -561, -561,
  -561, -561, 561, -561, -560, -560, 560, 560, 560, 560, 559, 559, -559, 559, 558, 558,
  558, -558, -558, 557, 557, -557, 557, 557, -556, -556, -556, 556, 555, -555, -555, -555,
  -554, 554, 554, -554, -554, -554, 554, -554, -553, -553, 553, 553, 553, -553, -553, -553,
  -552, 552, 552, -552, 552, 552, 552, -552, -552, -551, -551, -551, 551, 551, 551, 550,
  550, -550, -549, 549, 549, -549, -548, -548, -548, 548, -548, -548, -547, -547, -547, -547,
  -547, -547, -547, 546, -546, 546, -546, -546, 546, 546, -546, 546, -545, -545, 545, -545,
  545, -545, -545, -545, -544, 544, -544, -544, -544, 544, -544, 544, -544, 544, 544, 544,
  544, -544, -544, -543, -543, 543, -543, 543, 543, -543, -543, 542, 542, 542, 541, -541,
  -541, -541, 541, -541, -541, 541, 540, -540, -540, 540, -540, -540, -540, 539, 539, 539,
  539, 539, 539, -539, 539, 538, 538, 538, 538, 538, -537, -537, 537, 537, -537, 537,
  537, 537, -537, 537, 536, -536, -536, -536, -536, 535, 535, 535, -535, 535, -535, 535,
  -535, -534, -534, -534, 534, 534, -534, -534, 534, -534, -534, 534, 533, -533, -533, -533,
  533, -533, 533, -533, -533, -532, 532, 532, -532, 532, 532, -532, -532, 532, -532, 532,
  -532, -532, -531, -531, 531, -531, -531, -531, -531, 531, -531, 531, -530, 530, -530, 530,
  -530, -530, 529, -529, -529, 529, -528, 528, 528, -528, 528, -528, 528, -528, 527, -527,
  527, -527, -527, 527, -527, 527, -527, -526, -526, -526, -526, 526, 526, -526, 526, -526,
  -526, 525, 525, 525, 525, -525, -524, -524, 524, 524, 524, 523, 523, 523, 523, 523,
  -523, -522, -522, -522, 522, -522, 522, 522, -522, -522, -522, -521, -521, 521, -521, 521,
  520, -520, -520, -520, 520, -520, -520, -520, 520, -520, -520, 520, 519, -519, 519, -519,
  518, 518, 518, 518, 518, -518, 518, -518, -518, -517, 517, 517, -517, -517, 517, -517,
  517, 517, 516, -516, 516, 516, -516, -516, -516, 516, 516, 516, -516, -515, 515, -515,
  -515, 515, 514, -514, 514, -514, -514, 514, 514, -514, -513, 513, 513, -513, -512, -512,
  512, 512, 512, 512, 512, 512, 512, -512, 512, 511, -511, 511, -511, 511, -511, -511,
  -511, -511, -511, 510, 510, 510, 510, -510, -510, 510, 510, -510, -509, 509, 509, 509,
  -509, 509, 509, 509, 509, 509, -509, 509, -509, -508, -508, 508, -508, 508, 508, 508,
  -508, -508, -508, -507, -507, -507, 507, 507, -507, 507, 506, -506, -506, -506, -506, 506,
  -506, -506, 506, -505, 505, -505, -505, -505, 505, 505, -505, 504, 504, 504, 504, -504,
  -504, -504, 504, 503, 503, 503, -503, 503, 503, -503, 503, 503, 502, -502, 502, -502,
  502, -502, -502, -501, 501, -501, -501, -501, 500, -500, -500, -500, -500, 500, -500, -500,
  -500, -500, 500, -499, 499, 499, -499, -499, 499, -499, -498, -498, 498, 498, -498, 498,
  498, 497, -497, 497, 497, -497, -497, 497, -497, -497, 497, 497, -497, -496, -496, -496,
  496, -496, -496, 496, -495, 495, 495, -495, -495, -495, 495, -494, -494, -494, 494, 494,
  -494, 494, 494, -493, -493, -493, 493, -493, 493, -493, 492, -492, 492, 492, -492, 491,
  491, 491, -491, 491, -491, -491, -491, 491, -491, -490, -490, 490, 490, 490, 490, -490,
  -489, -489, 489, 489, -489, 489, 489, -489, 489, 489, -488, -488, -488, -488, 488, 488,
  488, -488, 487, 487, -487, -487, 487, 487, 487, -487, 487, -486, -486, 486, 486, -486,
  -486, 486, -486, -486, -486, 486, 486, 486, -485, -485, -485, 485, 485, -485, -485, -485,
  -484, -484, 484, 484, -484, -483, -483, -483, 483, -483, 483, -482, 482, -482, -482, 482,
  482, -482, -482, -481, -481, -481, -481, 481, -481, 481, 481, 481, -481, 481, -480, -480,
  480, 480, 480, 480, 480, 480, 480, 480, 480, -480, -479, 479, 479, 479, 479, 479,
  -479, -479, 479, -478, -478, -478, -478, 478, -478, -477, -477, 477, -477, -477, 476, -476,
  -476, -476, 476, 476, -476, -476, 476, 476, 475, -475, 475, 475, -475, -475, -474, -474,
  -474, -474, -474, -474, 474, 474, 474, 473, 473, -473, -473, 473, 473, 473, -473, 473,
  -473, 473, 473, -473, 473, 473, -472, 472, -472, 472, 472, 472, -472, -472, -472, -472,
  472, -471, 471, -471, -471, -471, 471, -471, 471, -471, -471, -471, -471, 471, -471, 471,
  471, -470, 470, 470, 470, 470, -470, -469, -469, -469, 469, -469, 469, 469, -469, 468,
  -468, 468, -468, 468, 468, -468, 468, 468, -468, -467, -467, -467, 467, -467, 467, -467,
  467, 467, 467, -467, -467, 467, 467, -466, 466, -466, 466, 466, 466, -466, 466, -466,
  -466, 465, 465, 465, -465, 465, 465, -465, 465, -465, -465, -465, 464, 464, 464, -464
};

#endif // SENTIMENT_MODEL_H
